34 32
33 0.3109001 0.09548699 -0.20581686 -0.24137355 0.09425576 0.38553265 0.17874919 -0.11435334 0.2802481 0.11108226 -0.11006035 -0.20667337 -0.5641703 -0.3518826 -0.050022464 -0.21851864 0.20675504 0.22424446 0.22542632 -0.19846928 -0.3401552 -0.0075873807 -0.38170806 0.24057359 0.20163731 -0.16316603 -0.14089267 0.22324404 -0.035134256 -0.16247703 0.1492314 0.30216712
0 -0.037395276 0.1541382 0.05125677 0.03824249 0.06737756 -0.050166335 0.27354044 -0.14218313 0.13801941 0.113772586 0.30488238 -0.01590399 -0.062215906 -0.40917903 -0.55868304 -0.07903112 0.2804592 0.27598897 0.16437493 0.09227141 -0.34251058 -0.027589992 0.32559365 0.41560906 0.3378657 -0.35416695 0.43013048 0.44917753 -0.086546645 0.10456644 0.13205512 0.25156805
32 0.36987025 0.11179853 -0.19513212 -0.25218078 0.07860645 0.39550462 0.045588516 -0.1291824 0.28520215 0.15346096 -0.16508235 -0.24019821 -0.533728 -0.37395656 0.0040788087 -0.30939752 0.2689524 0.30766878 0.21870987 -0.27101636 -0.36695772 0.09531941 -0.51947474 0.23992684 0.22896968 -0.082030825 -0.278077 0.22286257 -0.10114876 -0.075895526 0.08485653 0.33810097
2 0.14716838 0.26140147 -0.10622204 -0.110468574 0.17318413 0.22403152 0.38561317 -0.28946057 0.24949563 0.02402523 -0.030066282 -0.019365681 -0.34105492 -0.41124034 -0.3142865 -0.21838968 0.027202379 0.18097033 0.24007416 0.061639804 -0.15252449 -0.10629276 0.033619456 0.3124876 0.1965691 -0.30198053 -0.01070532 0.23398566 0.085443564 -0.095030956 0.038898446 0.09882244
1 0.12880076 0.3813208 -0.0012570104 -0.04798401 0.22656658 0.07779046 0.41752863 -0.3878616 0.25841933 0.03286483 0.042950682 0.05020875 -0.17409354 -0.46829996 -0.45145014 -0.2702232 -0.0011602483 0.26177573 0.20476404 0.1589224 -0.13200474 -0.10466083 0.23910111 0.34725907 0.24074817 -0.37309873 0.066928364 0.30883753 0.022063646 0.048954442 0.041667234 0.06978872
3 0.039945107 0.30847138 0.0009647511 0.035184167 0.19688898 0.059892684 0.42153168 -0.35590443 0.21757758 0.039357956 0.19873683 0.08565588 -0.10866311 -0.4454187 -0.5267378 -0.19223894 0.06308411 0.29736927 0.20605661 0.15312585 -0.11266935 -0.13277964 0.3568184 0.36384848 0.21858235 -0.4547295 0.14056908 0.325077 0.027595894 0.05239448 0.028292643 0.06180252
31 0.16471796 -0.09575259 -0.29268575 -0.30761802 0.08989096 0.328844 0.4618479 -0.02810415 0.2520418 0.12205447 -0.19448218 -0.24651901 -0.66631114 -0.22506277 -0.048780188 0.04834919 0.076680034 -0.12701307 0.32605764 -0.04528962 -0.25160795 -0.112682216 -0.19778863 0.20728697 0.19559649 -0.06425496 0.1247245 0.18245474 0.1284778 -0.392616 0.31964603 0.23386134
13 0.09889678 0.18768306 -0.051486302 -0.059545796 0.13645014 0.12738977 0.36935088 -0.23529059 0.21572098 0.05601171 0.047065735 -0.015923262 -0.24998727 -0.35972098 -0.37109667 -0.14696337 0.08729359 0.18413489 0.2163411 0.09632176 -0.1575315 -0.08745136 0.13730273 0.3128154 0.22352727 -0.32959217 0.073200375 0.23505427 0.039359953 -0.07657226 0.073089026 0.12937981
8 0.21724878 0.2113664 -0.08148609 -0.13823175 0.158656 0.20597643 0.22647999 -0.2141517 0.22631039 0.06596527 0.008238855 -0.07974807 -0.32812577 -0.3847466 -0.24238868 -0.24256162 0.13758633 0.2842512 0.21319205 -0.054449003 -0.26953527 -0.041885782 -0.09810414 0.26689804 0.2279547 -0.24621186 -0.08098447 0.26297528 -0.026801106 -0.026215859 0.07849252 0.19117871
23 0.30078748 -0.023833089 -0.32250947 -0.38849863 0.10914219 0.44771898 0.44606623 -0.08090442 0.34540683 0.14500235 -0.28611392 -0.31680083 -0.7729466 -0.2697145 0.044939797 -0.061860412 0.09707713 -0.038060684 0.3064694 -0.13406906 -0.26965076 -0.09066168 -0.32161763 0.18093409 0.1791491 -0.09346993 -0.063263424 0.13698795 0.1077382 -0.40724745 0.28579745 0.30038327
27 0.22110721 0.004063442 -0.3209976 -0.36420894 0.17522617 0.4134713 0.58988625 -0.13855655 0.3083688 0.082414865 -0.29701674 -0.22180688 -0.7718231 -0.24589938 -0.0595037 -0.012400272 -0.021774823 -0.113313064 0.3393027 -0.014202728 -0.19951615 -0.1727834 -0.17099157 0.20184611 0.20232728 -0.14981985 0.016314758 0.12265666 0.18640971 -0.4403641 0.32794183 0.21706949
30 0.22853109 0.24947542 -0.07475835 -0.119364716 0.17526807 0.25149548 0.22820166 -0.33582562 0.30813956 0.0012425957 -0.04523413 -0.024551162 -0.33092204 -0.4201189 -0.23139702 -0.31130368 0.051288188 0.30234766 0.2178817 -0.00041740236 -0.2357736 -0.08117029 -0.13954967 0.256886 0.17201044 -0.31380886 -0.24745913 0.21966383 0.019868525 -0.06306066 0.030824142 0.13011819
5 -0.2036075 0.032567587 0.09654466 0.16512471 -0.15194489 -0.21063131 0.102143295 0.06310198 0.0124235945 0.2579043 0.5241324 0.013952242 0.059159752 -0.4489397 -0.7592412 0.06620321 0.58127147 0.37917307 0.19802368 0.13190542 -0.5288019 0.13880213 0.40902132 0.56663454 0.5224882 -0.3623172 0.7244547 0.65010166 -0.25130484 0.28499204 0.116031796 0.39284503
7 0.088888876 0.31000966 0.004351164 -0.030801298 0.22226305 0.05571544 0.3625103 -0.33526665 0.21734782 -0.005920221 0.16297176 0.084275946 -0.13104782 -0.44384226 -0.4882974 -0.24005929 0.05415985 0.32697865 0.16776533 0.09786159 -0.15207502 -0.13094492 0.27342615 0.3287238 0.21265319 -0.43854672 0.06776989 0.3059072 0.022265635 0.03487451 0.055409182 0.072368816
29 0.34285882 -0.02238885 -0.2385893 -0.3576392 0.08513547 0.43890026 0.21579842 -0.061004777 0.32696095 0.16216455 -0.19626047 -0.33218497 -0.68818927 -0.28271326 0.075513266 -0.14414908 0.1914313 0.08109043 0.2846161 -0.23264322 -0.39158863 -0.016142737 -0.48483947 0.16909328 0.16742945 -0.07290718 -0.1619797 0.18661508 -0.015531294 -0.3119101 0.25194275 0.3455132
6 -0.23113292 0.02706649 0.14335464 0.18316261 -0.15408698 -0.23998034 0.089314446 0.08730015 -0.0072363545 0.28347057 0.55232817 -0.0058845966 0.10173893 -0.5076923 -0.81471735 0.053258024 0.6475857 0.42531934 0.21881057 0.14100814 -0.5787322 0.17045382 0.44987774 0.6086493 0.5653666 -0.3562754 0.79086196 0.728132 -0.28639168 0.32299513 0.108937696 0.4512813
28 0.20651758 0.111499146 -0.18724544 -0.20520903 0.18263838 0.28965053 0.41926628 -0.19073299 0.27760532 0.060303453 -0.09459804 -0.14747785 -0.49138588 -0.3009939 -0.16603845 -0.11460527 0.04875855 0.07530125 0.2504113 -0.008523834 -0.22545658 -0.14862192 -0.064941764 0.23468573 0.20590225 -0.2282105 -0.031548344 0.17966798 0.10247982 -0.21572134 0.18603896 0.15976554
19 0.13511376 0.17004079 -0.04086859 -0.07669819 0.11193859 0.1636864 0.2550604 -0.21001591 0.20856501 0.086462736 0.077519126 -0.065144405 -0.2565522 -0.35800797 -0.3022796 -0.17947955 0.15183319 0.24438007 0.20060506 -0.0017333978 -0.27199283 -0.03439273 0.019337045 0.31117445 0.22513843 -0.27779654 0.069607936 0.28348523 -0.021877099 -0.009488584 0.08287446 0.20431408
10 -0.23297088 -0.035344575 0.08193641 0.12897374 -0.14655697 -0.21622743 0.16898304 0.1059762 -0.01953201 0.23222063 0.47711694 0.0033945823 0.023256307 -0.42057756 -0.7210378 0.14815873 0.5338835 0.2835748 0.2091327 0.1363409 -0.49259907 0.10433313 0.44833434 0.5179944 0.48555955 -0.3384139 0.8108127 0.63050014 -0.18292856 0.19108821 0.19934757 0.4105232
4 -0.16468552 0.03885014 0.062030427 0.11149646 -0.048445415 -0.16671214 0.25847426 -0.022714404 0.043486256 0.1652317 0.43606123 0.046186723 -0.019761812 -0.40043792 -0.7326374 0.06054449 0.4348353 0.29234064 0.1992057 0.14333603 -0.3883086 0.047565773 0.45513672 0.5182991 0.4424232 -0.38203093 0.6873093 0.5471233 -0.11764551 0.16414148 0.13890472 0.32489035
24 0.2658003 -0.079055674 -0.41004115 -0.42701727 0.15435818 0.48175076 0.7449218 -0.081270695 0.3693133 0.13257654 -0.32678533 -0.34164873 -0.8960003 -0.21349639 0.03307453 0.090500854 -0.031218369 -0.22952317 0.38190317 -0.011887022 -0.18697809 -0.2353724 -0.17914748 0.1659354 0.1631647 -0.13438334 0.09023721 0.09635714 0.23417348 -0.6088951 0.4032287 0.25745034
25 0.17495477 -0.1636273 -0.34638476 -0.40014622 0.12202807 0.39623037 0.64556766 -0.009561644 0.2834376 0.11690003 -0.23596203 -0.31487677 -0.8401229 -0.18923107 -0.029756678 0.12734984 0.04849782 -0.21434042 0.39308614 -0.05643598 -0.21278927 -0.13551627 -0.15997943 0.18625672 0.22277714 -0.11405561 0.20161466 0.16156638 0.1905944 -0.557998 0.4378739 0.29527038
14 0.3705109 0.13816616 -0.18021734 -0.24775122 0.07628652 0.41088024 0.106253564 -0.16904494 0.3163181 0.15101406 -0.19484393 -0.23317832 -0.54630417 -0.36675152 0.03993238 -0.28806773 0.18139371 0.24958187 0.23563084 -0.18710136 -0.35375208 0.060128383 -0.49579978 0.22705536 0.20197433 -0.076418 -0.31385273 0.18840563 -0.04656389 -0.096566275 0.0694267 0.27419904
18 0.2882211 0.03310079 -0.21581592 -0.26579764 0.041113485 0.37502894 0.14807126 -0.076019675 0.28771043 0.16331889 -0.15466051 -0.24348632 -0.5866475 -0.32778516 0.0038769892 -0.17176993 0.21146344 0.16493562 0.23497719 -0.19042055 -0.38621375 0.032869 -0.44160822 0.21996813 0.22836085 -0.080063246 -0.13644513 0.22125569 -0.031772356 -0.18384011 0.15455745 0.32300785
12 0.034512635 0.2381993 0.0075341994 -0.037864674 0.1534211 0.0006271521 0.32777312 -0.24102479 0.17228666 0.06080623 0.2015982 0.032787964 -0.09433189 -0.4046781 -0.51151633 -0.17471613 0.13187169 0.27097479 0.14987105 0.07810385 -0.23697527 -0.06900638 0.27960616 0.3475746 0.2809169 -0.36717343 0.2744103 0.365088 -0.011619362 0.08586579 0.075826794 0.15829882
15 0.33475563 0.14190347 -0.20023955 -0.26355353 0.116138704 0.38764748 0.17539422 -0.18184921 0.30255556 0.09682604 -0.20681004 -0.19321442 -0.5563491 -0.33868605 0.017982004 -0.24327774 0.12661687 0.18918453 0.21999289 -0.14016965 -0.31072336 -0.022772042 -0.40617633 0.20078263 0.19220507 -0.08674898 -0.26471928 0.18555595 -0.0050973417 -0.14183596 0.11495573 0.24030392
9 0.26696375 0.11751199 -0.21480015 -0.23440677 0.15253998 0.35822967 0.3515543 -0.178373 0.30573356 0.05711621 -0.14452118 -0.15850708 -0.5646492 -0.3275794 -0.07790888 -0.16027175 0.0755574 0.10989495 0.27016369 -0.06244273 -0.24138819 -0.12142298 -0.22257154 0.22480729 0.19802152 -0.21058856 -0.14877321 0.14880677 0.067092285 -0.23503734 0.16497348 0.17677896
20 0.31782684 0.07359629 -0.21353897 -0.26934043 0.082504615 0.40937683 0.13074303 -0.11950019 0.30096808 0.1509083 -0.14924888 -0.2729916 -0.5854391 -0.3503778 0.031062419 -0.2238199 0.21227671 0.19566812 0.24203849 -0.20066924 -0.38544187 0.0067213215 -0.47362447 0.23331586 0.23104279 -0.07085115 -0.20054708 0.22141224 -0.042563565 -0.1573981 0.12975457 0.31165498
21 -0.021533407 0.30023077 0.079943985 0.06564639 0.15688114 -0.03405457 0.32098314 -0.28760725 0.13659929 0.054801106 0.31131816 0.12544386 0.010354161 -0.491819 -0.66011924 -0.19670522 0.16859606 0.39117903 0.18303798 0.13816322 -0.21943331 -0.038285647 0.38784316 0.4297344 0.2981317 -0.4865112 0.2729525 0.4248407 -0.059525292 0.16349235 0.032861765 0.12889984
22 0.40255004 0.17320766 -0.20370601 -0.2812721 0.115187466 0.45040795 0.10791448 -0.19645807 0.34665978 0.13759731 -0.21401967 -0.24415086 -0.5785567 -0.3600815 0.05744968 -0.33183023 0.16778103 0.23985277 0.2242125 -0.2174919 -0.34943593 0.024804637 -0.5544006 0.22396135 0.19636843 -0.07939964 -0.33628076 0.18833263 -0.039795805 -0.13544604 0.07774284 0.26633963
17 0.087404855 0.3324821 0.0512888 0.056839902 0.16250381 0.017785612 0.26197666 -0.36075148 0.17583677 0.028892297 0.2406927 0.102525525 -0.023505658 -0.44756028 -0.5317057 -0.2799569 0.118686646 0.42029503 0.13874133 0.06600764 -0.17627569 -0.049358696 0.28240374 0.39781284 0.23432374 -0.445993 0.08686889 0.35603198 -0.05446767 0.16639885 -0.03233654 0.10155732
16 -0.2702407 -0.116334036 0.0463886 0.11622678 -0.23206323 -0.20150237 0.044746656 0.22418435 -0.044101603 0.25983384 0.5046483 -0.018415643 -0.0021962002 -0.41785175 -0.7262692 0.18058528 0.6615758 0.33338952 0.23030764 0.090485334 -0.583476 0.15899497 0.309098 0.54705065 0.5471093 -0.3164468 0.8139105 0.6893294 -0.26486692 0.21467061 0.17825417 0.4791763
26 0.35133764 0.09136207 -0.23087713 -0.34058005 0.051363878 0.44322 0.1666301 -0.10558093 0.33500168 0.17624715 -0.26644135 -0.28925064 -0.64727306 -0.33584878 0.053710196 -0.238147 0.19931743 0.18333648 0.25977856 -0.2039333 -0.35515475 0.063648745 -0.5075308 0.214846 0.19860892 -0.048345923 -0.26259214 0.16513722 -0.033482894 -0.20680244 0.13302743 0.33441582
11 0.05846504 0.18202718 0.00068403885 -0.019507928 0.07359175 0.040128555 0.21660215 -0.17228146 0.13599165 0.11498034 0.23729731 -0.014936619 -0.10056449 -0.40319335 -0.45424163 -0.17259833 0.23711234 0.29489428 0.14348873 0.016746804 -0.2985239 -0.008485273 0.18158296 0.37325078 0.27450264 -0.2877648 0.27152148 0.40764686 -0.059729908 0.11404705 0.07528597 0.20253655
