68 32
57 0.29551467 -0.09499557 0.097896226 0.024070216 -0.267899 -0.13573438 0.020822333 0.15162465 -0.07530503 0.036830608 0.15080465 -0.078052446 0.34298667 0.0032967972 0.027134653 -0.22384869 -0.11757615 0.08262215 -0.3039602 0.48700583 -0.11313272 0.028270293 0.08192523 -0.06846564 0.2168431 -0.09875443 -0.08357471 0.09140046 -0.040049143 0.10453143 0.120875105 0.18459986
42 0.39626473 -0.07752583 0.046913497 0.030612156 -0.23340671 -0.12626132 -0.038206257 0.22696419 -0.061081972 -0.03740669 0.13053323 -0.06922366 0.35530958 -0.071137294 0.009310935 -0.18703534 -0.15965362 0.11123504 -0.23254736 0.47240433 -0.050975494 0.0099025415 0.14162335 -0.09796415 0.23855743 -0.036718577 -0.17324708 0.1021632 -0.061281677 0.018844498 0.051353674 0.1731998
61 0.3549545 -0.11236102 0.04341176 0.118079334 -0.19000259 -0.1296236 0.1064227 0.12326891 -0.037550103 -0.032824583 0.16675143 -0.074356504 0.29804975 -0.015168664 0.04313504 -0.21640511 -0.16682188 -0.009214297 -0.29543915 0.49373046 -0.1600417 0.03324819 0.1513852 -0.013104824 0.27175748 -0.08371478 -0.01522808 0.12607978 -0.004077258 0.123904794 0.12241334 0.17134096
25 0.24366026 -0.12086789 0.02622182 -1.12077105e-05 -0.2046575 -0.1425237 0.08193873 0.20140664 -0.05430271 0.02914738 0.18358919 -0.06928982 0.35367474 -0.033845223 -0.0137794735 -0.17178658 -0.14599305 0.09322909 -0.296789 0.4676613 -0.08634574 0.05682997 0.14246401 -0.12948284 0.258131 -0.033099193 -0.21813577 0.07080454 -0.09012376 0.012138498 0.09883629 0.20977186
33 0.34701607 -0.1290455 0.07519964 0.039389957 -0.24282667 -0.10012295 0.009352112 0.16647242 -0.016623579 0.0013559809 0.18612945 -0.08543142 0.36941224 -0.028417692 0.006950021 -0.14941563 -0.1703263 0.093383625 -0.32110372 0.45839363 -0.080365255 0.0583217 0.14367804 -0.060993444 0.20269875 -0.046327587 -0.1182116 0.09760539 -0.061881322 0.05417662 0.092906356 0.1774966
23 0.2104679 -0.083306395 0.046668217 -0.07938902 -0.21295603 -0.14642419 0.036312334 0.2655381 -0.10598554 0.021001194 0.13360453 -0.031380963 0.38964543 0.004727415 -0.0516864 -0.19383246 -0.18881981 0.090232044 -0.2906904 0.45287865 -0.087103575 0.080357336 0.08475969 -0.16280979 0.27658206 -0.06682177 -0.25938666 0.051638264 -0.076920144 -0.0049233795 0.08594433 0.2122749
60 0.38138703 -0.10919761 0.05073626 0.08948229 -0.20815021 -0.07493711 0.08960129 0.17359784 -0.06267319 -0.017510341 0.16305317 -0.087736666 0.2744636 -0.0145373205 0.0107742455 -0.17633358 -0.22578454 0.054313462 -0.27222896 0.5027907 -0.10484819 0.002998843 0.11342718 -0.044916857 0.29509145 -0.08394746 -0.013448041 0.12587132 -0.004790307 0.07728028 0.0900492 0.17889376
10 0.34286106 -0.10503489 0.12757176 0.017062409 -0.27557853 -0.07876476 -0.026479932 0.14979267 -0.031427026 0.047757167 0.20586786 -0.14456828 0.3432203 -0.021396466 0.026461605 -0.1527436 -0.17294732 0.10645473 -0.36660457 0.431677 -0.05184974 0.033305794 0.1685045 -0.08057475 0.18516931 -0.06902983 -0.12964293 0.115260616 -0.08925268 0.061418973 0.06469014 0.20623706
28 0.25432324 -0.10902908 0.08372811 -0.11156502 -0.26808783 -0.1550248 -0.039205596 0.2867679 -0.07928744 -0.003919803 0.10312742 -0.043279905 0.42421606 -0.0119180605 0.0070803487 -0.19059047 -0.11929068 0.13556738 -0.271742 0.44918683 -0.060118828 0.023879845 0.08346644 -0.22452499 0.20790377 -0.050368834 -0.27518746 -0.003215397 -0.0911705 -0.014886124 0.052918207 0.2403332
26 0.2567028 -0.093521856 0.037113145 -0.002096387 -0.21436767 -0.2146775 0.057930287 0.1774847 -0.097180806 -0.03276876 0.15311156 0.0007571023 0.39927906 -0.00710594 0.055915635 -0.23090233 -0.14489596 0.07640135 -0.20550267 0.48597425 -0.18996565 0.049360882 0.14017636 -0.23337476 0.2471648 -0.07690192 -0.19334331 -0.00553845 -0.033350985 0.04743445 0.090890005 0.25318885
41 0.43050918 -0.13023606 0.080054276 0.118154444 -0.2034416 -0.040793877 0.0627782 0.143659 -0.02416605 -0.026105948 0.13916592 -0.10427658 0.29939154 -0.024337592 0.015185099 -0.15120915 -0.22438231 0.0023736565 -0.3203853 0.47523293 -0.0732986 -0.013878393 0.14289816 0.027792653 0.255399 -0.09551002 0.024377922 0.18140163 0.025760645 0.07178459 0.09474082 0.15454207
43 0.38361838 -0.10284368 0.074595146 0.092821866 -0.23214841 -0.08710807 0.045225818 0.1650644 -0.02374895 -0.007341076 0.17703772 -0.10905833 0.33512732 -0.03000447 -0.0034703168 -0.16683002 -0.18304136 0.03565611 -0.32699645 0.48225155 -0.08838372 0.04063878 0.14079212 -0.0151533745 0.22143821 -0.069156505 -0.04061696 0.15919723 -0.021894936 0.06823639 0.103527926 0.15047319
62 0.40513524 -0.1390826 0.07727933 0.07147785 -0.22772193 -0.063920505 0.09104527 0.12999997 -0.047429405 -0.014922609 0.14720522 -0.117516 0.24724884 -0.028269999 0.06457086 -0.1800978 -0.23278883 0.029625105 -0.3557643 0.4934888 -0.08875914 -0.015277038 0.12015781 0.012004416 0.2712134 -0.09803664 0.034209974 0.16467842 0.016909687 0.123985775 0.10488134 0.15154639
29 0.3206633 -0.10966646 0.08812615 -0.08521799 -0.2541167 -0.10902893 -0.029026551 0.25561604 -0.06986427 0.01048523 0.10370009 -0.036572974 0.4117456 -0.022040833 0.017308628 -0.17447767 -0.1621103 0.15610255 -0.25794935 0.45768806 -0.025394076 0.05425815 0.13476707 -0.19064628 0.20745099 0.009232194 -0.2512991 0.03344955 -0.0667034 -0.051791318 0.046600554 0.19847184
27 0.25023657 -0.10834814 0.088053785 -0.15109853 -0.28999323 -0.13037443 -0.05659287 0.27304307 -0.088450275 0.041942783 0.08629027 -0.011513087 0.4761906 -0.037575696 0.009835856 -0.17691486 -0.13215576 0.19390008 -0.28347263 0.41752848 -0.0048516155 0.06177944 0.15281023 -0.26323533 0.1820313 -0.025569577 -0.31918702 -0.016401058 -0.08307347 -0.072582036 0.018916145 0.2668333
32 0.27208793 -0.111338556 0.034768566 0.028225016 -0.16882724 -0.1503383 0.123718195 0.18565144 -0.04475937 -0.0057507586 0.20086358 -0.07722659 0.32856864 0.038907595 -0.011620347 -0.19018084 -0.1921053 0.029366007 -0.30011567 0.48610342 -0.154849 0.06781109 0.06209848 -0.096050255 0.30669197 -0.066502705 -0.13612318 0.07878601 -0.04878476 0.07514625 0.12887834 0.17178707
59 0.44530442 -0.08249057 0.09536241 0.14534761 -0.21963604 -0.045001887 0.054862414 0.11270379 0.0071169734 -0.015928518 0.15431587 -0.1306944 0.3077172 -0.053879227 0.013242524 -0.17282131 -0.17831118 0.04338837 -0.3301755 0.48255092 -0.09267375 0.01049343 0.19831005 -0.010197147 0.20309052 -0.05675413 -0.049827296 0.17060806 -0.019122371 0.072201714 0.04740849 0.14582899
40 0.34772655 -0.08968788 0.09471142 -0.043446146 -0.22920679 -0.087321095 0.025070203 0.2597366 -0.044602484 0.014532945 0.12117011 -0.14942889 0.28677827 0.01792478 -0.016481653 -0.22089697 -0.18959981 0.049809825 -0.3244654 0.47523448 -0.093941785 0.021962175 0.020144999 -0.066460945 0.23907624 -0.07962437 -0.11793935 0.13168775 -0.07194657 0.0835764 0.11190555 0.12595543
8 0.24657273 -0.09726729 0.06264598 -0.058277633 -0.19287628 -0.13366829 0.0063319956 0.26591352 -0.040944703 -0.00630826 0.12381073 0.028916243 0.4398669 0.048340425 -0.06918911 -0.18313877 -0.15269665 -0.0094106775 -0.25011456 0.46054855 -0.03965079 0.04795999 0.09731411 -0.12765977 0.2816161 -0.02623938 -0.26316535 0.03285245 -0.041756693 -0.01888596 0.08336647 0.2344261
67 0.4047517 -0.10869426 0.08497784 0.084704764 -0.21505839 -0.06430952 0.060693324 0.13828214 -0.019608399 -0.016208727 0.15214045 -0.13305672 0.29513928 -0.011821721 0.033336423 -0.14488934 -0.22147207 0.06775249 -0.33042225 0.4713791 -0.093440704 -0.0066723977 0.1481373 -0.03707516 0.24018922 -0.07662027 -0.052518692 0.13796486 -0.07052503 0.07049874 0.07605958 0.15979472
12 0.28829247 -0.1283935 0.06734919 0.034636874 -0.2027524 -0.120150216 0.07041897 0.15606296 -0.0701134 0.031096453 0.17578685 -0.06621863 0.30696848 0.011896623 0.043478098 -0.17123304 -0.20685247 0.062335312 -0.3334746 0.48886833 -0.09741079 0.03407053 0.10156291 -0.09028146 0.26536837 -0.08750847 -0.09190143 0.10189966 -0.04716805 0.08148038 0.12268449 0.1928244
18 0.30857185 -0.13373184 -0.012386848 0.09059469 -0.1584494 -0.17692132 0.15714473 0.14469594 -0.0956454 -0.10224517 0.15332438 -0.038698737 0.28030878 -0.00078588293 0.062028036 -0.24144392 -0.23630907 0.02658659 -0.18986724 0.5073758 -0.2022331 0.06815032 0.12576216 -0.12345466 0.32422656 -0.13005868 -0.054138675 0.07350723 -0.04098219 0.07269657 0.11167322 0.23942381
56 0.36661392 -0.11818871 0.054830614 0.12339593 -0.17372778 -0.118584365 0.09187564 0.113482125 -0.069640435 -0.021649422 0.17181884 -0.06358217 0.27017593 0.013761354 0.055888258 -0.21379815 -0.23656285 0.006918604 -0.28103217 0.4903891 -0.15605952 0.0060385265 0.17993027 -0.059479147 0.28607365 -0.08126073 -0.014201497 0.10518192 -0.03680783 0.12074422 0.10342031 0.17507984
47 0.356677 -0.14783622 0.06059479 0.06949279 -0.20877896 -0.08965523 0.12104156 0.1730264 -0.05891515 -0.031509083 0.13649945 -0.09514698 0.26355112 0.009840639 0.04306931 -0.17670178 -0.25868198 -0.018935347 -0.33085984 0.49584913 -0.10674019 0.008750801 0.05833422 -0.0020206142 0.29043162 -0.14286253 0.0481395 0.15412712 -0.00937117 0.11930489 0.11188877 0.16523495
39 0.39275807 -0.07753408 0.1515148 -0.0226836 -0.33000037 -0.04942123 -0.06518632 0.17629102 -0.04474766 0.021321092 0.06868939 -0.10056184 0.37929633 -0.003452506 0.075791724 -0.18811604 -0.11266501 0.100948595 -0.33277792 0.44989327 -0.03013967 -0.047544595 0.14087021 -0.07790938 0.16883385 -0.08419394 -0.078186676 0.10361599 0.0018172835 0.040073372 0.0444731 0.21082504
22 0.2320296 -0.13552153 0.034048002 -0.13564548 -0.2505687 -0.14913717 -0.0032550534 0.29048342 -0.084764525 -0.013598725 0.0823166 0.0067315367 0.43225643 -0.008118653 -0.0018438894 -0.18997617 -0.1600252 0.13720338 -0.21504904 0.46822137 -0.043099813 0.040918 0.090666 -0.20479693 0.25134376 -0.059985574 -0.2783005 0.017526282 -0.03942226 -0.08238829 0.06307061 0.2744767
54 0.35690364 -0.094551064 0.08679666 0.14515075 -0.18352722 -0.12458814 0.08289694 0.08759683 -0.062303763 -0.051509906 0.13159385 -0.066413045 0.29897222 0.023828844 0.074311435 -0.27496225 -0.14722264 0.0037600389 -0.25036073 0.52481145 -0.18289232 -0.0070926948 0.19281712 -0.025351338 0.26877505 -0.106966265 -0.0051987073 0.08113467 -0.011176769 0.15271159 0.1011889 0.22254056
24 0.401219 -0.10400824 0.07154905 0.10824032 -0.22237626 -0.055648692 0.02551563 0.12396166 -0.020575853 0.006746868 0.17028932 -0.09595796 0.32588243 -0.05608991 0.03494626 -0.106117755 -0.18877958 0.09763861 -0.36519676 0.4870556 -0.03288051 0.011441907 0.23040403 -0.027724033 0.22930826 -0.038806617 -0.08580535 0.114177905 -0.04859913 0.07749506 0.06277255 0.18074211
55 0.48054403 -0.096954614 0.080632456 0.18739848 -0.18571374 -0.059754815 0.084741525 0.124399535 -0.049079746 -0.019767182 0.13007875 -0.14211927 0.26109886 -0.050757118 0.02542434 -0.19207846 -0.19424272 0.026234217 -0.28876105 0.5150982 -0.10266171 -0.027609877 0.1943352 -0.010022891 0.2391059 -0.06612704 0.037902325 0.18515804 -0.033417057 0.1010528 0.07221355 0.11497089
14 0.2690371 -0.13090393 0.09388723 -0.089918025 -0.27505517 -0.122810856 -0.04654563 0.23486935 -0.034873936 0.033733472 0.1049836 -0.05738481 0.44952235 0.0052713263 0.01974773 -0.18470675 -0.10059754 0.12805575 -0.29313424 0.44059798 -0.024655795 0.058546707 0.112745605 -0.1604475 0.20056874 -0.043786507 -0.25155437 0.028614422 -0.050741497 -0.00457551 0.042450495 0.22441773
53 0.32107228 -0.07930062 0.12093303 -0.10006181 -0.27507672 -0.03548775 0.028176518 0.27886704 -0.069034055 0.0448326 0.118432395 -0.11949553 0.27677006 0.010174526 -0.0052986825 -0.13592225 -0.25136486 0.08056216 -0.3691175 0.46841094 0.004373251 -0.019122967 -0.006572326 -0.054361925 0.23431858 -0.11798368 -0.04989321 0.14279132 0.025625827 0.03287433 0.079763874 0.1703172
13 0.23871085 -0.10351402 0.09895865 -0.18073457 -0.2691321 -0.12094346 -0.002751101 0.31292224 -0.07778811 0.04190686 0.12827311 -0.104005076 0.3606978 0.048234966 -0.055488475 -0.21523008 -0.19431403 0.082399435 -0.3192412 0.4324758 -0.067483455 0.04272102 -0.036501907 -0.15521303 0.24382633 -0.10397647 -0.24294488 0.070611276 -0.07536076 0.0013113113 0.07799656 0.2080883
34 0.3081891 -0.14052533 0.008525177 -0.010726394 -0.19477038 -0.10643239 0.10032503 0.24910413 -0.078623995 -0.039440203 0.1170043 -0.054028552 0.3438101 0.008138215 -0.020020902 -0.16660477 -0.28009838 0.025792213 -0.2725542 0.45080855 -0.08093294 0.044321477 0.039943427 -0.09627763 0.3022061 -0.083385274 -0.11711252 0.110857554 0.011135657 -0.00991128 0.075038604 0.18044014
20 0.2264575 -0.120242655 0.033102844 -0.023540588 -0.18254413 -0.18962188 0.077993944 0.2071362 -0.109483674 -0.015810767 0.1542967 -0.029125882 0.37817866 -0.004459672 -0.034524307 -0.22966382 -0.16730331 0.10729806 -0.23311296 0.45410383 -0.14646229 0.08990125 0.08200705 -0.16341312 0.2691878 -0.10651054 -0.21388675 0.034966283 -0.0852188 0.01068216 0.10598343 0.22391018
35 0.35744968 -0.12913457 0.047913834 0.23636675 -0.19233248 -0.12365707 0.12265119 0.011100945 -0.052669723 -0.065074004 0.19973448 -0.037092768 0.26896307 0.01071925 0.11476222 -0.24269092 -0.17789699 -0.028822828 -0.25648275 0.5417938 -0.2046013 0.04270609 0.19893323 0.010748017 0.2916852 -0.10744959 0.09583037 0.10514122 0.049569335 0.18336587 0.15539911 0.2073388
37 0.31586382 -0.1058691 0.09005474 -0.029243395 -0.22696573 -0.049464762 0.07647889 0.24260853 -0.033976033 0.024029793 0.12927008 -0.13141425 0.2977123 0.02613718 -0.06648569 -0.13308848 -0.25291258 0.011179865 -0.36858395 0.4497651 -0.006888547 0.002555002 -0.004813147 0.01007526 0.27719167 -0.13208444 -0.05051455 0.18927212 -0.039150447 0.03010972 0.102046624 0.15724573
6 0.15400808 -0.09930886 0.06555532 -0.21885625 -0.28818727 -0.15558074 -0.007924885 0.2884705 -0.10290084 0.05911695 0.12735453 -0.04630526 0.42439765 0.0030785697 -0.019827003 -0.17069396 -0.16333851 0.15236975 -0.34042454 0.41533133 -0.031369213 0.046899147 0.01661405 -0.22199668 0.23862393 -0.070928045 -0.33818436 -0.015298767 -0.07425646 -0.019883564 0.07941084 0.2607827
1 0.3036086 -0.11489481 -0.011571184 0.07889238 -0.16428205 -0.1479154 0.09196188 0.1538866 -0.03988956 -0.04870978 0.16321327 -0.02720571 0.31797352 -0.010322626 0.025121894 -0.17912033 -0.19556586 0.056396626 -0.22398785 0.49280396 -0.12352427 0.02407355 0.16209926 -0.10184224 0.32679805 -0.089300655 -0.12836108 0.075894065 -0.032943882 0.00995085 0.09768414 0.24352571
58 0.51381755 -0.086079136 0.13650475 0.20061864 -0.22456367 -0.0058311066 0.00669695 0.06484007 0.025293157 -0.0012909981 0.16722284 -0.15252869 0.28592405 -0.06754817 0.05933309 -0.13342908 -0.14646065 0.034913268 -0.38698345 0.5102006 -0.07510953 -0.038967095 0.25248596 0.07279948 0.17797697 -0.02087409 0.04648181 0.18166307 0.006283587 0.16966982 0.085777186 0.097542785
45 0.37269247 -0.11968672 0.06507944 0.053327676 -0.19334075 -0.0708692 0.05292111 0.19726738 -0.029662235 -0.024546409 0.17827381 -0.122698076 0.26832485 0.033364512 -0.012219287 -0.15561998 -0.2503505 0.007530503 -0.33391446 0.49530816 -0.09570505 0.024338406 0.057557534 0.016782312 0.2867616 -0.098758176 -0.018740842 0.177957 -0.014900939 0.10794962 0.12511489 0.13011359
7 0.12628263 -0.095674336 0.056467086 -0.27285784 -0.27419028 -0.14613436 -0.044807676 0.38369492 -0.088216364 0.053910147 0.11823382 0.0016879645 0.46067864 0.0041393368 -0.063866414 -0.12192211 -0.17154828 0.13129036 -0.33775488 0.42851233 0.028201822 0.05525802 0.040992558 -0.27505496 0.25700182 -0.023564542 -0.42461738 -0.023604868 -0.0925349 -0.11851312 0.042977326 0.257123
46 0.40924624 -0.10362793 0.11193427 0.113489084 -0.23183456 -0.01678454 0.10617818 0.096656136 -0.0024350008 -0.011299081 0.17306451 -0.16151938 0.24540268 0.016126141 0.017772244 -0.19259459 -0.23552004 -0.06579781 -0.39603996 0.4944246 -0.08408939 -0.01686721 0.10641717 0.116247684 0.2767069 -0.1255761 0.11262378 0.18848473 0.024320235 0.1789585 0.1336633 0.15438722
49 0.28932026 -0.11488353 0.043534357 0.09487843 -0.13019449 -0.16455594 0.14653023 0.14427444 -0.08292074 -0.050766792 0.14709222 -0.03879462 0.29536447 0.08911086 0.010576036 -0.29289296 -0.21245289 -0.11322281 -0.23643398 0.52231425 -0.21589331 0.0035101853 0.07290165 -0.04074855 0.33238474 -0.10464104 -0.031998407 0.09789415 0.0027697806 0.15692118 0.15948083 0.19020225
44 0.39126787 -0.104189 0.11333878 0.13361093 -0.22211294 -0.045985337 0.10221106 0.08640506 -0.028520769 -0.024759665 0.17086123 -0.11466766 0.22659017 0.02480465 0.054112855 -0.18507953 -0.2112962 -0.03391533 -0.38335413 0.5272879 -0.1406952 -5.847773e-05 0.11344008 0.08706769 0.26016957 -0.1193538 0.11537584 0.1835103 0.03697988 0.19819602 0.14848769 0.14327997
50 0.3660076 -0.100230925 0.04113645 0.15814249 -0.18231778 -0.07888683 0.14774038 0.106601596 -0.036993545 -0.03478437 0.17044978 -0.07447738 0.24042192 -0.02840425 0.041212685 -0.20625427 -0.22887187 -0.010033482 -0.29869846 0.50825936 -0.15283723 0.021009788 0.14011991 -0.010442793 0.29246494 -0.0774416 0.03619297 0.1452656 0.0096185 0.107117 0.12763304 0.15360735
2 0.14673875 -0.08059698 0.02251564 -0.09338246 -0.20370278 -0.23963392 0.023477402 0.2381965 -0.09557469 0.03781181 0.18797651 0.012757216 0.3880837 -0.02549705 -0.009080466 -0.23179919 -0.0807522 0.06840501 -0.23080514 0.47416013 -0.13103142 0.07484521 0.14551277 -0.25402775 0.27320367 -0.032190967 -0.33307767 -0.03167102 -0.063413315 0.0022520404 0.102388054 0.24487841
15 0.2031155 -0.13693404 -0.051302746 -0.04327741 -0.15387541 -0.19347535 0.14214309 0.24207923 -0.10614464 -0.032270387 0.1641148 0.033638373 0.31412575 0.013926921 -0.015177529 -0.20832057 -0.21626277 0.04916504 -0.2109211 0.5109255 -0.15948187 0.058433257 0.07359167 -0.20513365 0.36869302 -0.09797422 -0.18646821 -5.020531e-06 -0.01442556 0.0014835155 0.12510127 0.23921436
3 0.3067941 -0.09006195 0.13424489 -0.15813603 -0.32094505 -0.08162426 -0.084963195 0.32261932 -0.06585066 0.006931199 0.06080385 -0.05905418 0.40213478 0.0009795639 -0.00752719 -0.12813778 -0.17873858 0.13690977 -0.30252084 0.4680058 0.069058925 -0.025954783 0.044788186 -0.13526602 0.22123347 -0.056410257 -0.21710394 0.073039405 -0.05464849 -0.06143129 0.03790279 0.24365138
31 0.22962663 -0.089516856 0.098815255 -0.18701945 -0.2516092 -0.11725298 0.007955218 0.31490037 -0.06616902 0.028837226 0.1167061 -0.016246986 0.41881007 0.028819958 -0.038427114 -0.1924283 -0.20043726 0.061638463 -0.3072975 0.42661652 -0.057480544 0.016517648 0.0028068058 -0.18026592 0.24191679 -0.09090466 -0.24212252 0.010106233 0.003929058 -0.018289104 0.06773775 0.21511745
48 0.40981513 -0.08617409 0.12290806 -0.008066552 -0.23982303 -0.028408162 0.0102330325 0.2243784 -0.03217953 0.042436946 0.10259724 -0.15360615 0.34105572 -0.013301422 -0.04474359 -0.11450641 -0.18461205 0.04871618 -0.40307608 0.47475722 -0.0009396565 -0.055874817 0.06296365 -0.004711859 0.21205053 -0.07151321 -0.05722624 0.17040946 -0.039660674 0.06563083 0.05698954 0.1292867
52 0.45022115 -0.13221256 0.05094948 0.26295486 -0.1714147 -0.11660282 0.186782 0.009418997 -0.007857885 -0.08618006 0.20034613 -0.12562229 0.21295771 -0.0072285584 0.0945434 -0.24574114 -0.19529845 -0.053480685 -0.2784466 0.5368493 -0.24377021 0.020535694 0.16793437 0.07726712 0.29053956 -0.14161079 0.18410534 0.19760282 0.0012411932 0.22764193 0.15832502 0.14618735
4 0.18488456 -0.105042376 0.08682924 -0.12305091 -0.2554978 -0.13300478 0.015115353 0.23842219 -0.07342921 0.072763145 0.15684617 -0.030158581 0.40150085 -0.00594859 -0.012464282 -0.16884054 -0.11677825 0.10736338 -0.32627526 0.4564428 -0.047516067 0.06706107 0.1142567 -0.17669186 0.23711357 -0.033074908 -0.27549314 0.018989252 -0.054191705 -0.011768076 0.07999491 0.2399235
36 0.34150428 -0.1310809 -0.016493121 0.13792196 -0.094679505 -0.17534354 0.21296479 0.15337463 -0.08564874 -0.10504401 0.17681408 -0.06717978 0.23599087 0.02653902 -0.019147826 -0.26177076 -0.27565026 -0.11034513 -0.2320991 0.501147 -0.23843427 0.040247288 0.0693991 -0.036326032 0.33973104 -0.15637611 0.03945587 0.12693678 -0.006010541 0.129423 0.14549033 0.15742575
65 0.42008945 -0.10147915 0.097066075 0.034402657 -0.21040502 -0.015072247 0.022696706 0.21485126 -0.01830324 0.015217021 0.102821216 -0.096513376 0.36577198 -0.005658914 -0.039406616 -0.15186091 -0.23399271 0.055150677 -0.30209276 0.447548 -0.011382389 -0.038454883 0.10755624 -0.010368834 0.24567312 -0.059791207 -0.097082436 0.14088677 0.009715462 -0.007203493 0.053749446 0.15245596
17 0.1739343 -0.13668752 0.02923357 -0.073478684 -0.23140402 -0.19034973 0.037275527 0.17875175 -0.089552 0.028871864 0.18494393 0.019675238 0.39396176 0.010371878 0.009927228 -0.22019239 -0.112329505 0.10301238 -0.2611412 0.47562116 -0.1161177 0.11269068 0.1255477 -0.18796504 0.28213602 -0.063006975 -0.26698086 -0.005923059 -0.07584312 0.007807437 0.115305915 0.27756774
9 0.24838898 -0.12043262 0.09768703 -0.11132094 -0.24493618 -0.11667115 -0.0070636487 0.26902947 -0.053874876 0.06231456 0.16889915 -0.054619893 0.3556603 -0.026256863 -0.060250178 -0.13939385 -0.17651281 0.077159956 -0.3522919 0.4631438 -0.0006646106 0.06317342 0.08860331 -0.1007294 0.26345414 -0.037788913 -0.23082265 0.08849494 -0.04504277 0.000583641 0.107283115 0.19495961
11 0.36647978 -0.08325166 0.1563944 -0.066180006 -0.28158292 -0.028338052 -0.065633945 0.23411454 -0.027107958 0.06904619 0.112168595 -0.09320638 0.3924359 -0.03625535 0.00377162 -0.13697551 -0.14118187 0.13084647 -0.36292237 0.4648542 0.018342786 0.0056633377 0.12716787 -0.079136826 0.16087313 -0.007200189 -0.18478884 0.108899996 -0.039223302 0.010180265 0.05768124 0.15768027
5 0.22201307 -0.08577893 0.09795591 -0.12240866 -0.27591917 -0.13895807 -0.06779349 0.28206882 -0.089287564 0.05644016 0.13518721 -0.0071230344 0.44902775 -0.021920877 -0.03159757 -0.18443368 -0.09478292 0.1863953 -0.27150875 0.43949386 -0.039187163 0.07217158 0.11388152 -0.23951922 0.20751122 -0.040747616 -0.34349728 -0.007346988 -0.09779398 -0.0627032 0.0452553 0.21627651
63 0.34250435 -0.12140576 0.024593707 0.076255955 -0.18880923 -0.13738339 0.11648826 0.15857464 -0.04483098 -0.053807516 0.13176946 -0.08672581 0.30490395 -0.010729757 0.011847629 -0.22183412 -0.19918306 0.015411017 -0.24852183 0.49527064 -0.12616763 0.008779796 0.12613414 -0.06404581 0.30761036 -0.08906724 -0.081758946 0.09415883 -0.015632177 0.08483832 0.08086683 0.17314094
21 0.2481264 -0.12884653 0.0019088688 0.027970558 -0.16757786 -0.16344708 0.07769758 0.18141508 -0.057554238 0.03492528 0.2192545 -0.0608229 0.344996 -0.027080094 -0.041561853 -0.1826626 -0.14605066 0.091189235 -0.26958492 0.4707866 -0.12730327 0.0866134 0.14075185 -0.13331026 0.298267 -0.021818247 -0.22724271 0.07700129 -0.09941911 0.0034349845 0.12699442 0.21310228
0 0.20815046 -0.12170236 0.020766573 -0.13087092 -0.22729816 -0.17091756 0.043355763 0.2989371 -0.08871997 0.033846147 0.15923464 -0.0108912485 0.42137775 -0.05503266 -0.0606595 -0.11685759 -0.19287762 0.16175926 -0.2692734 0.4365437 -0.031655848 0.07585483 0.060373183 -0.26030105 0.27679837 -0.03824245 -0.30584586 0.029528394 -0.08420446 -0.11059208 0.048637528 0.23505847
19 0.24730869 -0.07287864 0.080222204 -0.13662434 -0.26877922 -0.11291119 -0.024552682 0.3302633 -0.0779582 0.025854763 0.123681754 -0.0339585 0.42356348 -0.04411992 -0.03911256 -0.12408903 -0.18021049 0.1769057 -0.2809176 0.43731508 0.008929545 0.043047115 0.0970626 -0.20933415 0.23304793 -0.06424421 -0.29934686 0.047858596 -0.08843888 -0.08678871 0.029601745 0.24102865
66 0.38609353 -0.13202955 0.06523506 0.083220504 -0.21854283 -0.042029094 0.11869302 0.14938368 -0.018447565 -0.05304983 0.13834935 -0.105136424 0.26365608 0.015472137 0.050912276 -0.15736902 -0.28878188 -0.0050588627 -0.34649923 0.4893839 -0.07133317 -0.0067500165 0.10124428 0.026608052 0.3027043 -0.124745145 0.057008497 0.15267974 0.023150563 0.094730295 0.08398568 0.18030037
51 0.47794506 -0.13897884 0.03246291 0.25548318 -0.1659966 -0.08004086 0.1743949 0.054346472 -0.018037913 -0.07936194 0.20782639 -0.13402283 0.19071235 -0.016546605 0.059325933 -0.17281924 -0.28064546 -0.03760059 -0.28941664 0.5178861 -0.1828659 0.012977933 0.14688231 0.07437122 0.30863112 -0.13278411 0.17046423 0.1986971 0.011349485 0.17511919 0.109858304 0.12772919
16 0.117080584 -0.13817282 -0.017962897 -0.087284364 -0.18589763 -0.25130084 0.055720724 0.23167232 -0.12043297 0.008369073 0.15993595 0.06866368 0.412983 -0.010131006 0.021103958 -0.21889386 -0.1034769 0.17140526 -0.21535 0.49154592 -0.14724109 0.13223037 0.13331021 -0.27862716 0.277578 -0.045999967 -0.3680486 -0.05818069 -0.12476072 -0.048056945 0.13736999 0.30463937
64 0.42571667 -0.10676082 0.09611603 0.17732728 -0.19633582 -0.059321918 0.09185032 0.03497592 -0.006322913 -0.015260677 0.2240947 -0.14321338 0.23958305 -0.007118813 0.063834004 -0.19229949 -0.18343645 -0.040279154 -0.3683873 0.51133406 -0.15913646 0.0009960767 0.18956852 0.083576865 0.2551206 -0.09216476 0.09630388 0.15459105 0.015654432 0.18782063 0.15316406 0.13760893
38 0.4282759 -0.07922847 0.12801838 0.09960073 -0.25772297 -0.030307146 0.041922957 0.10847896 -0.04130624 0.0116428025 0.12823464 -0.12492336 0.25901723 -0.011526294 0.040118515 -0.19543108 -0.17229223 0.01752473 -0.3536825 0.50555253 -0.09658614 -0.0594538 0.1147621 0.05078899 0.22790194 -0.08564543 0.06461692 0.14502344 0.043552175 0.14115946 0.113586105 0.12390732
30 0.38229838 -0.1202688 0.03746161 0.19595067 -0.15415235 -0.11710329 0.14108577 0.055236977 -0.04672505 -0.0297888 0.21797027 -0.120262265 0.22861186 0.03511609 0.05994458 -0.2398744 -0.22924903 -0.013309252 -0.29806867 0.5012258 -0.21556146 0.03600166 0.17849231 0.027901502 0.30042964 -0.15685564 0.07590933 0.13100064 -0.02977665 0.18885462 0.13424999 0.16034213
