34 32
33 -0.14106108 -0.17404559 -0.18404664 0.14808522 0.3965703 -0.4838426 -0.11214363 -0.0023083435 0.13289562 -0.27210593 -0.10738898 0.002482411 -0.46564466 -0.25286588 0.42317912 0.087624855 -0.15353245 0.11283992 -0.14006081 0.20253833 0.37303862 -0.18575971 -0.15161517 0.25642687 0.057397716 -0.17171964 -0.12041831 -0.051538598 0.25758278 0.44863668 0.09155749 -0.242642
0 0.12013454 0.0273672 -0.31860304 -0.023721313 0.59673303 -0.0447436 -0.10986748 0.15729456 -0.6946433 -0.35427448 0.32729703 -0.23496215 -0.18170285 -0.028949473 0.10776659 0.16660696 -0.24699296 0.06787026 0.18118821 -0.030432817 0.24462569 -0.08177708 -0.011117307 0.15404889 0.25195876 -0.108655296 0.22960363 0.26959258 0.33226952 0.28539005 -0.34515432 0.00097162166
32 -0.15610994 -0.18278494 -0.16106403 0.17080063 0.34383234 -0.58530146 -0.07580281 0.019453052 0.13394831 -0.2878296 -0.2255665 0.040410817 -0.59632987 -0.2383412 0.52537864 0.06538608 -0.07359387 0.24871495 -0.13710158 0.2757424 0.2504097 -0.21547656 -0.18249851 0.34146813 0.06370186 -0.17747909 -0.20919923 -0.058673117 0.25414342 0.3918868 0.14442238 -0.23640947
2 0.06223917 -0.09348119 -0.234058 0.006480429 0.3694839 -0.31210032 -0.1516947 0.05808645 -0.2029447 -0.10770527 0.16175538 -0.091888025 -0.35478035 -0.21396984 0.19774224 0.17707743 -0.2210677 -0.18407318 -0.043029577 -0.011836926 0.3828164 -0.2954259 -0.018264517 0.20159444 0.1501301 0.032982424 0.25541687 -0.082686596 0.32018402 0.3768282 0.042155106 -0.14322646
1 0.1634862 -0.02891586 -0.2892814 -0.094667695 0.43066186 -0.25843713 -0.17423518 0.1693189 -0.4217333 -0.1262045 0.2673884 -0.11966321 -0.3935328 -0.17425789 0.1190718 0.24234119 -0.2118041 -0.22148879 0.043484088 -0.093809135 0.30256698 -0.30874747 0.057302393 0.21747126 0.24438816 0.14417621 0.37251198 -0.0308486 0.40259856 0.30379224 -0.06095599 -0.03759617
3 0.18873782 -0.086105786 -0.28728247 -0.12960538 0.45952043 -0.19819681 -0.17721607 0.17230356 -0.5642885 -0.20757383 0.27882984 -0.17206019 -0.2771167 -0.11009565 0.07438969 0.24689981 -0.2730708 -0.1822334 0.13839772 -0.15388553 0.2709765 -0.24859756 0.06906273 0.10653888 0.24601187 0.14986025 0.43322465 0.018362503 0.40460536 0.28374118 -0.121164486 -0.041153513
31 -0.0871905 -0.15946777 -0.18338023 0.28876975 0.451842 -0.17557213 -0.11378196 -0.10203114 0.2983103 -0.17945202 0.1261894 -0.084576905 -0.10930249 -0.33258712 0.19532877 0.14429966 -0.33286008 -0.11578996 -0.31649673 0.12604882 0.5977554 -0.13180535 -0.16229838 0.08552726 0.031725056 -0.3142163 -0.17941557 -0.07203611 0.11995969 0.53385633 0.05673311 -0.31607294
13 0.08740754 -0.0870983 -0.25942066 0.02690276 0.40169746 -0.21133228 -0.123923525 0.074569434 -0.30707496 -0.17256455 0.19225055 -0.12394289 -0.2557889 -0.18028758 0.13053848 0.19808272 -0.23076107 -0.11985408 0.022617005 -0.045682963 0.3317041 -0.20543502 0.013369423 0.13161425 0.15773037 0.013779192 0.24196021 -0.020069709 0.28850204 0.33311126 -0.05390334 -0.12779516
8 -0.0056195534 -0.08856933 -0.20345142 0.03312546 0.39290136 -0.37900344 -0.1240108 0.12015287 -0.14795245 -0.202225 0.06056298 -0.051538233 -0.43178752 -0.17923795 0.2805942 0.14534524 -0.16252872 0.040838256 -0.025017045 0.052809346 0.2826466 -0.2267902 -0.06710447 0.20137453 0.14518134 -0.014881947 0.10376834 -0.0036813829 0.3464404 0.33432385 0.025031334 -0.13002235
23 -0.14386852 -0.23033668 -0.20480517 0.3057938 0.39808038 -0.36747214 -0.16359945 -0.08322795 0.41484064 -0.24634707 -0.03739986 -0.014480411 -0.2863561 -0.4215668 0.31352004 0.15526535 -0.3153026 -0.08835508 -0.35467234 0.14993885 0.61816597 -0.13974689 -0.18563905 0.1451656 0.032723565 -0.26193634 -0.24941698 -0.14125949 0.16878779 0.5669317 0.15541166 -0.34529126
27 -0.0904062 -0.20957856 -0.21395186 0.2632881 0.43401122 -0.25774583 -0.16489883 -0.07342411 0.3961439 -0.15089872 0.11718654 -0.096463 -0.2105373 -0.4132684 0.20508756 0.20861396 -0.3883534 -0.24549377 -0.39618957 0.065175004 0.68120855 -0.1849093 -0.1095585 0.081281215 0.05050341 -0.20001626 -0.09263309 -0.18578972 0.18002787 0.6088725 0.13948481 -0.34077305
30 0.030489922 -0.10879337 -0.22118513 -0.014234839 0.3171691 -0.43469632 -0.12419708 0.09164282 -0.11333851 -0.13429382 0.030339956 0.028403876 -0.47178835 -0.2491289 0.3183528 0.1753578 -0.16667445 -0.041295093 0.0012958383 0.028758943 0.30149794 -0.3163409 -0.041387573 0.19669265 0.10622678 0.10052742 0.15621626 -0.14430803 0.40828195 0.3311312 0.08296672 -0.14040814
5 0.15702906 0.15088725 -0.37912065 0.031777103 0.81060845 0.098178856 -0.0039259377 0.16850863 -1.1220357 -0.51810694 0.42086565 -0.3443315 -0.10786699 0.11614543 0.13737054 0.11592744 -0.18166481 0.37427583 0.3934091 0.07902245 0.1078691 0.096162245 -0.03011451 0.20004733 0.2688499 -0.34334284 0.19665554 0.5812578 0.27427527 0.30868927 -0.614068 0.033640012
7 0.15839683 -0.074995294 -0.3027657 -0.12703499 0.4321238 -0.2521983 -0.1533583 0.17965627 -0.462288 -0.17594394 0.23261122 -0.12967514 -0.32971966 -0.12509851 0.106926866 0.25049597 -0.23519185 -0.14257227 0.10936327 -0.12872782 0.27965328 -0.24600878 0.07101287 0.13427004 0.25493494 0.17689899 0.39449796 0.013304456 0.40593678 0.27643225 -0.10215827 -0.034309193
29 -0.18168628 -0.19378786 -0.1595996 0.25070733 0.39313263 -0.4636091 -0.12328967 -0.050596815 0.37301567 -0.27768648 -0.13833137 0.053911105 -0.40809348 -0.33962244 0.40172765 0.04504975 -0.22080174 0.113269895 -0.2961347 0.23298399 0.45534512 -0.1311266 -0.22302784 0.21665962 0.023410458 -0.27904886 -0.3176964 -0.0893745 0.22342324 0.5211362 0.09561518 -0.32451192
6 0.18420754 0.15900743 -0.40174085 0.06099659 0.89435315 0.11122091 0.015424313 0.18576826 -1.2246408 -0.56249213 0.46288657 -0.40046015 -0.11655961 0.15415065 0.15942678 0.13268171 -0.17505106 0.4518009 0.41456297 0.065553896 0.08533434 0.09367564 -0.03779471 0.21234432 0.29057437 -0.36013675 0.18215561 0.65660214 0.29083666 0.32335612 -0.664244 0.06748005
28 -0.024724443 -0.17470229 -0.20290995 0.13155437 0.37090445 -0.2967859 -0.13615301 0.026554538 0.077705145 -0.19375128 0.1310429 -0.07877096 -0.28573522 -0.29788917 0.22361074 0.18307209 -0.29025382 -0.13374127 -0.18098779 0.025039105 0.46035987 -0.22178757 -0.05796344 0.074915625 0.07888641 -0.057478078 0.052390575 -0.08581006 0.27722773 0.4469718 0.047664367 -0.20640723
19 0.04204108 -0.06932968 -0.23639877 0.018111072 0.41456386 -0.27348068 -0.12094766 0.11652643 -0.29498804 -0.25920784 0.11486117 -0.08811896 -0.32192272 -0.15813313 0.22198412 0.1326024 -0.19695298 0.0049673268 0.044904318 0.045942478 0.2858654 -0.16931565 -0.05947617 0.1720958 0.14927757 -0.040760312 0.0977838 0.03798372 0.30782616 0.311274 -0.073388174 -0.110666774
10 0.17599896 0.10935498 -0.36995012 0.086162746 0.8511176 0.17010292 0.009910812 0.10487378 -1.0159816 -0.49195817 0.45281485 -0.39257216 0.03645652 0.09958781 0.08476459 0.1496521 -0.2188047 0.32373863 0.33479327 0.036824908 0.17896216 0.11931151 -0.025267707 0.12352658 0.2645621 -0.35651162 0.15294676 0.5716889 0.20133846 0.32799256 -0.6118244 0.010210434
4 0.15357298 0.07179929 -0.38222376 0.02949065 0.76341915 0.11250088 -0.037543442 0.16190709 -0.9520054 -0.41618446 0.43927068 -0.363732 -0.046131477 0.05813897 0.07751483 0.1852997 -0.24452595 0.18274066 0.29266423 -0.010881919 0.21453936 0.03764034 0.00043349178 0.121946596 0.2808182 -0.24027313 0.2732664 0.43915483 0.24921447 0.31456453 -0.49740377 -0.012718837
24 -0.12687339 -0.2524674 -0.21467349 0.3799643 0.43790436 -0.24645288 -0.20197299 -0.12609784 0.5358683 -0.21002935 0.15001829 -0.0710338 -0.10789295 -0.51906824 0.17163298 0.22401828 -0.47962072 -0.31616783 -0.4670145 0.07267576 0.8509961 -0.15981103 -0.14377287 -0.017697552 -0.0058753 -0.26845542 -0.226281 -0.19528228 0.17223558 0.68396115 0.18052667 -0.43138874
25 -0.101397805 -0.25151283 -0.19710542 0.35167193 0.5468077 -0.15532264 -0.14388338 -0.119454004 0.44381902 -0.24629962 0.14704704 -0.15051739 -0.044108972 -0.44463366 0.16369194 0.17196448 -0.4344852 -0.21204741 -0.4427167 0.0872935 0.76276886 -0.074213065 -0.13790622 0.0065753628 0.04339546 -0.36470783 -0.21486497 -0.100482665 0.10621477 0.6561552 0.08923102 -0.37110728
14 -0.14453562 -0.13300176 -0.15721549 0.14186698 0.28787714 -0.5641039 -0.10045414 0.017033087 0.19141738 -0.23142692 -0.1797978 0.07057234 -0.58404243 -0.27641445 0.4594229 0.060597822 -0.103691354 0.15404338 -0.16987284 0.25357908 0.27946487 -0.2373853 -0.20515275 0.32534721 0.04354856 -0.1421695 -0.19978136 -0.1180808 0.28782207 0.41800267 0.14811452 -0.22890346
18 -0.16068879 -0.14370696 -0.15781601 0.21541747 0.37774968 -0.45067462 -0.08860257 -0.03609035 0.18241172 -0.2749958 -0.10927498 0.020668307 -0.42977926 -0.284262 0.41387323 0.076088965 -0.15608609 0.16878474 -0.18244502 0.23466647 0.3615735 -0.15879281 -0.20743254 0.2510815 0.02601883 -0.24446715 -0.22796535 -0.03452152 0.22477461 0.45563197 0.07922268 -0.26566797
12 0.11553512 -0.0067283306 -0.3028553 -0.09338142 0.48522952 -0.15663436 -0.14778093 0.1542509 -0.55286604 -0.2314733 0.26123565 -0.20084152 -0.27652296 -0.06374929 0.08161046 0.20069686 -0.24863963 -0.06356697 0.105895676 -0.06901675 0.2617527 -0.17086121 0.018002635 0.17218031 0.28565478 0.027238186 0.29288423 0.1483708 0.34023765 0.26459527 -0.20729606 -0.010183213
15 -0.11354172 -0.13253115 -0.13915458 0.16221647 0.2916644 -0.4782172 -0.10251882 0.0016876622 0.2142509 -0.1872698 -0.09251832 0.030319346 -0.50145197 -0.28404433 0.4162084 0.08262248 -0.14492106 0.06585224 -0.19799647 0.18364632 0.3335174 -0.24823833 -0.17256378 0.25291038 0.026270857 -0.118873574 -0.13820332 -0.12410003 0.29212782 0.43460503 0.17485431 -0.23963085
9 -0.07445916 -0.17194454 -0.19745336 0.16007948 0.3508789 -0.39346826 -0.11930673 -0.018844528 0.16286288 -0.16434535 0.026182532 0.0021776212 -0.35414365 -0.31351143 0.29107454 0.16236143 -0.24102442 -0.08019192 -0.19123329 0.08817818 0.46529436 -0.24723779 -0.114382684 0.15433545 0.05548499 -0.08338654 0.0033994797 -0.1335372 0.2800937 0.47429004 0.13461512 -0.23755015
20 -0.16795821 -0.14177153 -0.15717229 0.19367161 0.35735163 -0.4969302 -0.10100284 -0.020601466 0.19572131 -0.2495973 -0.14111072 0.030472321 -0.49558568 -0.27094474 0.45672333 0.057867024 -0.15194726 0.17491217 -0.19733402 0.22585379 0.35787427 -0.20507732 -0.22391552 0.28337765 0.018305292 -0.22196919 -0.2070635 -0.0561362 0.2714594 0.46163836 0.11812937 -0.24119091
21 0.21331514 -0.02052109 -0.3439797 -0.15553106 0.57897884 -0.13508782 -0.112964064 0.22329457 -0.783731 -0.25848126 0.33138773 -0.21525088 -0.26066032 -0.038546234 0.10416933 0.24131097 -0.21517158 -0.043105204 0.27833906 -0.101327166 0.21199508 -0.21129492 0.08286292 0.1659696 0.31261134 0.09380974 0.42639592 0.14781512 0.39493543 0.23854008 -0.23753653 0.015927782
22 -0.16534628 -0.1488253 -0.13230371 0.15510236 0.29766127 -0.6019347 -0.103100896 -0.003931052 0.24993555 -0.21336852 -0.20111683 0.08723964 -0.60985094 -0.2994299 0.49592417 0.047916967 -0.10799971 0.1261617 -0.19805638 0.2515546 0.3085029 -0.2828184 -0.20364334 0.35089788 0.028852439 -0.14690727 -0.18295565 -0.1183364 0.29107705 0.4384683 0.19468488 -0.25013655
17 0.16688526 -0.045400046 -0.30177772 -0.15692134 0.44439137 -0.26513425 -0.1436646 0.24038403 -0.64892256 -0.22366597 0.19590731 -0.14435057 -0.35116106 -0.067388035 0.16969085 0.22040677 -0.16300368 -0.06727965 0.23824473 -0.11320605 0.15472868 -0.23380283 0.07255584 0.19413799 0.2754726 0.17308806 0.3915027 0.077765204 0.39541492 0.20533077 -0.13042818 -0.007549898
16 0.12319732 0.14270699 -0.35129932 0.14258069 0.8979067 0.1781145 0.054151386 0.06880174 -1.0473586 -0.51964146 0.42065716 -0.3872482 0.012986114 0.12996958 0.19881856 0.09891231 -0.15066704 0.4963462 0.37502757 0.14451581 0.14363423 0.17032501 -0.06701497 0.151567 0.22714119 -0.4883026 0.08303063 0.6238272 0.17751612 0.37837607 -0.6657903 -0.028989755
26 -0.17939885 -0.18663539 -0.18357244 0.22196908 0.33094144 -0.5447947 -0.1349537 -0.064691 0.268166 -0.24169885 -0.21205726 0.0806695 -0.51170135 -0.32837006 0.44280174 0.07646852 -0.14967436 0.13826315 -0.24668382 0.26406887 0.37207794 -0.17533168 -0.22263533 0.33232686 0.057145774 -0.24057256 -0.27134392 -0.11076786 0.19607508 0.4860596 0.1385409 -0.29009965
11 0.089514494 -0.014816028 -0.26407656 -0.048604544 0.52312624 -0.18468715 -0.08546759 0.15630794 -0.5324554 -0.29637167 0.2122509 -0.2020203 -0.27500036 -0.027590193 0.18138476 0.14353603 -0.18764222 0.06975788 0.13720794 -0.012706902 0.19211072 -0.14888833 -0.02275097 0.1992786 0.23285113 -0.04949301 0.19068097 0.2096888 0.29009128 0.27563536 -0.21206886 -0.016149936
