34 32
33 -0.44937745 -0.07496503 0.18348855 0.5423727 -0.0219447 -0.03480596 0.24742836 0.27704582 -0.033503693 -0.12514983 0.2920471 -0.11992536 0.29440436 0.00056177523 -0.32185245 -0.5252715 -0.06262299 0.09163201 -0.0151565885 0.13688403 -0.021819036 0.45714968 0.35806614 0.15975365 0.06387147 0.2532786 -0.020204883 -0.05729707 -0.10070618 -0.27290604 0.14799255 -0.0032419881
0 -0.3581167 -0.10197322 0.61744255 -0.05876555 -0.10086782 -0.35730916 0.5178549 0.12718816 -0.0021298602 0.018374983 -0.06375036 -0.18384205 0.029877393 -0.38420513 -0.18548448 0.07209148 -0.08505824 0.16825847 0.40498212 0.27886745 0.09750888 0.06257272 0.5306888 -0.20486215 0.07403013 -0.1403141 -0.20572852 0.27946696 -0.01230673 -0.36399415 -0.05802476 -0.13365541
32 -0.5175759 0.03497668 0.07300496 0.58549047 -0.031798154 -0.053756062 0.31514695 0.35595822 -0.055716395 -0.18504548 0.45915744 -0.033429924 0.36774892 0.054365367 -0.30082586 -0.5685159 0.02418553 0.07538336 0.060779452 0.16785036 -0.14757754 0.4336194 0.28962883 0.210898 -0.015184924 0.29436767 0.036309443 -0.066207506 -0.086641036 -0.23428065 0.22247839 0.007032974
2 -0.38752308 -0.2594341 0.26658216 0.21095346 -0.111351535 -0.04714744 0.25493133 0.112803556 0.1164641 0.10888274 0.02731861 -0.006937638 0.17639026 -0.11663197 -0.33263758 -0.34115183 -0.20822915 0.2830852 0.1588973 0.17227349 0.19752339 0.32018963 0.44326612 -0.15616094 0.0714642 0.11827535 -0.0810102 -0.093285866 0.118716195 -0.29125535 -0.15880668 0.027618047
1 -0.36630636 -0.21307997 0.41153076 0.018170243 -0.09829407 -0.20196488 0.3227644 0.03616819 0.11668699 0.19927411 0.039550744 0.08803915 0.22869793 -0.23057836 -0.3717122 -0.21497789 -0.2129736 0.39005777 0.28957713 0.16980013 0.19531319 0.21669887 0.5437637 -0.3163749 0.028374933 0.082485855 -0.1525675 0.06883497 0.2061606 -0.241149 -0.25183198 0.04695257
3 -0.3677791 -0.2259881 0.43719745 -0.05793925 -0.18421772 -0.23202033 0.3571013 -0.081771396 0.12944686 0.1825976 -0.14239319 -0.08838153 0.1573888 -0.29200384 -0.32392362 -0.18739575 -0.2158305 0.34264606 0.37955037 0.18827762 0.14164343 0.13514851 0.5563179 -0.3391997 0.0074833306 -0.031208344 -0.18615173 0.08675113 0.17373638 -0.2878638 -0.32496664 -0.010427024
31 -0.23015383 -0.38355622 0.3087766 0.37507597 0.11391126 0.1065608 0.017849611 0.35582224 -0.08437039 -0.1877468 0.027661012 -0.2376646 0.10114231 0.045076434 -0.1207805 -0.39515293 -0.2283962 0.10251536 -0.24631958 0.15390284 0.16706198 0.37006605 0.42814076 0.16740309 0.3410993 0.3564674 -0.079699025 -0.13999473 -0.19464852 -0.48707014 0.1570503 -0.08348762
13 -0.3066187 -0.23772413 0.37102002 0.104085915 -0.124860786 -0.08963935 0.31301194 0.022876116 0.03995039 0.07112416 0.010006325 -0.07522495 0.13875483 -0.17907262 -0.23393042 -0.24594161 -0.17979768 0.20508455 0.18660711 0.13861437 0.11738563 0.2521237 0.44322744 -0.14879374 0.044713706 0.059703406 -0.1317569 0.00607619 0.032640874 -0.31408167 -0.17549586 -0.04723826
8 -0.44244576 -0.11550895 0.21768494 0.27938375 -0.08671179 -0.16289067 0.3223741 0.14869952 -0.03354076 0.021555552 0.21204308 -0.018639872 0.26455766 -0.1255391 -0.29029864 -0.342247 -0.07688072 0.19435802 0.17436564 0.15333906 0.060644124 0.352933 0.3603067 -0.038512815 -0.004062972 0.13784386 -0.12523045 0.045688294 0.030125258 -0.22667804 -0.033942845 -0.0152202165
23 -0.26364183 -0.33638987 0.25870368 0.53290147 0.21019083 0.12484846 0.05436424 0.31868196 -0.04380837 -0.19653063 0.22097279 -0.23363811 0.19462188 0.12752873 -0.24597871 -0.6280091 -0.15417227 0.085370824 -0.29572177 0.20725623 0.045377336 0.4580176 0.48123795 0.2547575 0.26436365 0.40267143 -0.024612885 -0.16507372 -0.13891552 -0.44709426 0.14599557 0.008593884
27 -0.23370887 -0.46486726 0.35241014 0.425323 0.097990915 0.18870804 -0.019188525 0.2797077 -0.003170998 -0.09973847 0.06988758 -0.1624359 0.13404378 0.0540533 -0.20143066 -0.536444 -0.24919409 0.17581919 -0.3790474 0.18061067 0.18269229 0.49080604 0.5181464 0.096273586 0.35472316 0.4334566 -0.078995086 -0.20316538 -0.0956639 -0.490063 0.06418318 0.010346974
30 -0.4694942 -0.17381135 0.11820616 0.2999684 -0.070796944 -0.060027223 0.2947363 0.013025443 0.055572182 0.12625095 0.20575453 0.0067762327 0.3905088 -0.17107697 -0.41287637 -0.3867448 -0.14449647 0.17400673 0.22184466 0.055689264 0.035550613 0.46943665 0.37742713 -0.13552597 -0.07583007 0.22300567 -0.13434249 -0.02485487 0.10126972 -0.1199015 -0.028132578 0.051108617
7 -0.35812888 -0.1804289 0.42702684 0.05633628 -0.20707506 -0.259698 0.30977187 -0.08136566 0.100947626 0.1556357 0.019563757 -0.0283751 0.20965357 -0.35591796 -0.3509742 -0.19552991 -0.19006065 0.29962498 0.31086874 0.15155755 0.18254702 0.22586884 0.48198754 -0.27788746 -0.051728163 0.03550374 -0.21833937 0.14462818 0.1280761 -0.16925593 -0.28429705 0.010370131
5 -0.5002188 0.096300274 0.85529184 -0.21733758 -0.26280782 -0.48702794 0.87712914 0.31639847 -0.009490266 -0.11805846 0.0062351422 -0.24113889 -0.17057908 -0.5433723 0.066079706 0.28911605 -0.049583428 -0.08929798 0.6970172 0.24518703 0.07067637 -0.012689892 0.4734045 -0.17290789 0.10233487 -0.40397844 -0.26333526 0.37370026 -0.09990939 -0.5099112 0.0800784 -0.24383019
29 -0.39396504 -0.20701164 0.16316698 0.60608083 0.1901601 0.037397422 0.13344121 0.3072532 -0.16060767 -0.23335923 0.28465584 -0.21054204 0.3372309 0.042662278 -0.26114202 -0.5636801 -0.09105151 0.020327097 -0.13954538 0.21141705 -0.088213146 0.54419327 0.31678995 0.28058815 0.13477296 0.38735765 -0.011979858 -0.06871282 -0.20632179 -0.28811952 0.3353679 -0.07845564
6 -0.553264 0.119118534 0.9259036 -0.26138526 -0.30832013 -0.546834 0.9836512 0.3363852 -0.041612003 -0.17493778 0.05384283 -0.2766711 -0.15442157 -0.61501515 0.10317804 0.3468977 -0.034074813 -0.08787664 0.7582415 0.28087124 0.04383199 -0.051798288 0.4761564 -0.21423286 0.06325477 -0.4446953 -0.24307384 0.41352016 -0.17922944 -0.53772855 0.09487314 -0.29204467
28 -0.33173338 -0.37113664 0.25318232 0.25654617 0.0082760565 -0.0073933476 0.14230098 0.07912835 -0.07747521 -0.008348453 0.09697944 -0.1328068 0.17213273 -0.0907934 -0.26180035 -0.465601 -0.16873112 0.18893473 -0.033889636 0.09209086 0.05693641 0.35413828 0.4532892 0.03681294 0.15750088 0.2812405 -0.095949054 -0.055703983 -0.0004424096 -0.38214728 -0.029912181 -0.0112706125
19 -0.37671027 -0.1354945 0.35434735 0.20473137 -0.05421316 -0.178315 0.3154521 0.11731303 0.015669007 0.0031414116 0.03641501 -0.10175333 0.21778156 -0.19340767 -0.26241082 -0.26377937 -0.07227872 0.16143155 0.24188337 0.1765135 0.05119077 0.23188637 0.41326147 -0.04368161 0.014277785 0.06227552 -0.12006957 0.10330026 0.016169151 -0.25243083 -0.03395559 -0.013631463
10 -0.41263476 0.026625624 0.9019511 -0.20682853 -0.2632742 -0.4354243 0.78951985 0.27587807 -0.037881136 -0.20886877 -0.047383424 -0.28635958 -0.2206799 -0.5410359 0.13955775 0.3448322 -0.13153698 -0.070136316 0.5656779 0.24551184 0.14531745 -0.08158369 0.49637088 -0.15861246 0.21333468 -0.35434845 -0.2352536 0.3418609 -0.19918092 -0.51893866 0.068072565 -0.25818884
4 -0.3871209 -0.045015328 0.85608286 -0.18684556 -0.27878368 -0.36973506 0.6567872 0.21763901 0.03937964 -0.058136128 -0.09260186 -0.28211161 -0.1645242 -0.5173317 0.055911288 0.2400878 -0.110534616 0.052959017 0.5041549 0.22939977 0.18018417 -0.031511065 0.53240734 -0.16484247 0.14982529 -0.28747886 -0.2664438 0.31460792 -0.116296396 -0.5106713 -0.07558595 -0.2329928
24 -0.14113086 -0.6326595 0.4170952 0.39882275 0.27546406 0.2558499 -0.11246795 0.2716254 -0.10921023 -0.21843763 -0.024461871 -0.36823058 0.052939393 0.13412534 -0.22260591 -0.6850806 -0.28735995 0.11303756 -0.47949567 0.15135376 0.15939325 0.4596757 0.60932624 0.2534454 0.43551412 0.47824058 -0.11444776 -0.21599478 -0.19517119 -0.64735353 0.09567081 0.0046195514
25 -0.17271787 -0.5075331 0.47764233 0.37253368 0.1804623 0.21518153 -0.055144057 0.4056064 -0.062846355 -0.28675455 -0.011078385 -0.30538616 0.029913874 0.033174682 -0.062728226 -0.541617 -0.2952151 0.11339412 -0.4494937 0.18556751 0.1692782 0.4354807 0.5255547 0.24741058 0.49791998 0.38417664 -0.104032196 -0.12194187 -0.2002838 -0.6064094 0.17704046 -0.02637533
14 -0.5123644 -0.02386123 0.049701013 0.53831804 0.08508903 -0.042291813 0.23924264 0.30003107 -0.018250715 -0.10640674 0.3643344 0.003203584 0.42477039 0.08358397 -0.34843892 -0.56959856 -0.019826448 0.102353886 0.047610953 0.15573601 -0.15783125 0.48376316 0.2718698 0.16939758 -0.029019494 0.33779588 0.005917746 -0.09863656 -0.042400327 -0.23215197 0.22736199 0.00031379398
18 -0.45627594 -0.07608851 0.13600437 0.5297298 0.0909417 -0.009723137 0.2568684 0.34722257 -0.03978726 -0.18713762 0.3118308 -0.12601005 0.32321438 0.03364902 -0.27166215 -0.4781816 -0.019527897 -0.0044004363 -0.026864229 0.18702096 -0.084108666 0.46157268 0.32510796 0.21804622 0.11205834 0.27757213 -0.01719869 -0.057453148 -0.121051736 -0.2742054 0.2293763 -0.0030250507
12 -0.3485063 -0.14975774 0.5072669 0.019063102 -0.13250484 -0.32304224 0.3561708 0.070817634 0.07421622 0.06276366 -0.029467119 -0.080672495 0.079481296 -0.3070165 -0.26971957 -0.044777196 -0.12932408 0.28365612 0.3526401 0.30519933 0.19514929 0.076281704 0.4912982 -0.24032277 0.018074369 -0.007454825 -0.17256616 0.19427948 0.077712156 -0.2690063 -0.19429941 -0.049986888
15 -0.4687205 -0.07690472 0.051383793 0.5110595 0.08475428 0.024871616 0.21638158 0.23026396 -0.052855637 -0.043928683 0.31677228 -0.03056327 0.3872493 0.06009726 -0.28253716 -0.5146678 -0.08184314 0.10694676 -0.030160695 0.115349084 -0.05576585 0.48542517 0.3319791 0.093233906 0.045917936 0.33140635 -0.008456422 -0.15584436 -0.013887105 -0.2536644 0.18147644 0.0054154573
9 -0.36067837 -0.2609492 0.17058833 0.41584283 0.024884736 0.07901979 0.16495456 0.11458667 -0.015194199 -0.0028844594 0.15878485 -0.1161689 0.269463 -0.025148692 -0.32359648 -0.5127099 -0.18390866 0.13740739 -0.056396812 0.1164734 0.058852263 0.45316634 0.41989303 0.04478368 0.10710054 0.30745867 -0.05394907 -0.15225424 -0.049346432 -0.33654165 0.07036383 -0.00018884864
20 -0.50747025 -0.08017735 0.073961265 0.5801858 0.07169344 0.00027601025 0.2392455 0.3175937 -0.060746707 -0.11073787 0.32515594 -0.122608505 0.3369971 0.028432893 -0.32441887 -0.5096016 -0.036437 0.033634998 0.020947022 0.19146039 -0.07188609 0.47542322 0.3189772 0.1724305 0.047933847 0.32108968 0.0047165896 -0.08079383 -0.10248027 -0.2768641 0.2976723 -0.0045936494
21 -0.4123922 -0.05788408 0.5888138 -0.08983903 -0.33389696 -0.37585863 0.4901115 0.033098396 0.09715272 0.09185827 -0.045222934 -0.038368132 0.111395836 -0.45815063 -0.25222316 -0.03715051 -0.17500162 0.28872192 0.5186585 0.20880088 0.20414756 0.06345184 0.5241486 -0.33365235 -0.029739268 -0.12251094 -0.23178147 0.21258642 0.13811694 -0.24760851 -0.3050858 -0.015530945
22 -0.548891 -0.04348836 0.014245018 0.6104581 0.08615155 0.010645777 0.22027177 0.3126365 -0.01942561 -0.056658417 0.41019058 0.038060043 0.46507373 0.10457581 -0.38233662 -0.58359766 -0.031038001 0.12620021 0.040167507 0.1924228 -0.09938492 0.53017217 0.29028323 0.16643208 -0.024430921 0.37196812 0.04986777 -0.14448376 -0.029626131 -0.19315633 0.23460187 0.02205389
17 -0.44228923 -0.045222864 0.44575506 0.023898847 -0.2698772 -0.32425848 0.40678263 -0.07507716 0.10306258 0.14813961 0.0032102715 0.022743072 0.2099725 -0.37956578 -0.31056064 -0.16263025 -0.106590934 0.31071445 0.4979348 0.18763256 0.11911449 0.123451054 0.46147126 -0.25422427 -0.09414132 -0.075803906 -0.1990434 0.18740566 0.18911952 -0.13971755 -0.31796482 0.041896753
16 -0.44628575 0.1454701 0.90144354 -0.1600683 -0.3592325 -0.38734108 0.92314893 0.39835533 -0.000119197764 -0.24275239 0.12865731 -0.36909977 -0.26390377 -0.585112 0.13412836 0.37189677 -0.0757117 -0.23425756 0.6075683 0.18446636 0.16285364 0.008205862 0.42500865 -0.06803477 0.17085782 -0.39284644 -0.20705856 0.2833953 -0.27260104 -0.5244802 0.21489604 -0.3170762
26 -0.49573228 -0.046775214 0.095688045 0.596235 0.14227022 0.050781533 0.21693328 0.3796115 0.014020743 -0.14028203 0.4576252 -0.03788289 0.36692676 0.11141359 -0.31182522 -0.58806056 -0.059962247 0.042450156 -0.08885892 0.24089792 -0.120540835 0.4695934 0.31455484 0.21007869 0.04210334 0.35910287 0.00992304 -0.16214913 -0.13433072 -0.28109032 0.26671988 -0.015481779
11 -0.42532519 -0.037788797 0.4895517 0.09405655 -0.1955421 -0.31710255 0.4300809 0.15290582 -0.028182646 0.014281643 -0.0041017104 -0.12307515 0.12217126 -0.3041507 -0.16550633 -0.026370358 -0.09145781 0.23412472 0.3589974 0.28723067 0.1078606 0.053704053 0.4134458 -0.111790374 0.046086684 -0.013946932 -0.11118158 0.2169892 -0.03170752 -0.26326492 -0.10402774 -0.058921378
